digraph Tree {
node [shape=box] ;
0 [label="cell_size <= 3.5\ngini = 0.456\nsamples = 478\nvalue = [310, 168]"] ;
1 [label="bare_nuclei <= 5.5\ngini = 0.122\nsamples = 323\nvalue = [302, 21]"] ;
0 -> 1 [labeldistance=2.5, labelangle=45, headlabel="True"] ;
2 [label="normal_nucleoli <= 8.5\ngini = 0.057\nsamples = 309\nvalue = [300, 9]"] ;
1 -> 2 ;
3 [label="bare_nuclei <= 2.5\ngini = 0.032\nsamples = 305\nvalue = [300, 5]"] ;
2 -> 3 ;
4 [label="gini = 0.0\nsamples = 281\nvalue = [281, 0]"] ;
3 -> 4 ;
5 [label="thickness <= 5.5\ngini = 0.33\nsamples = 24\nvalue = [19, 5]"] ;
3 -> 5 ;
6 [label="mitoses <= 2.0\ngini = 0.236\nsamples = 22\nvalue = [19, 3]"] ;
5 -> 6 ;
7 [label="cell_shape <= 3.5\ngini = 0.172\nsamples = 21\nvalue = [19, 2]"] ;
6 -> 7 ;
8 [label="single_cell_size <= 1.5\ngini = 0.1\nsamples = 19\nvalue = [18, 1]"] ;
7 -> 8 ;
9 [label="gini = 0.5\nsamples = 2\nvalue = [1, 1]"] ;
8 -> 9 ;
10 [label="gini = 0.0\nsamples = 17\nvalue = [17, 0]"] ;
8 -> 10 ;
11 [label="gini = 0.5\nsamples = 2\nvalue = [1, 1]"] ;
7 -> 11 ;
12 [label="gini = 0.0\nsamples = 1\nvalue = [0, 1]"] ;
6 -> 12 ;
13 [label="gini = 0.0\nsamples = 2\nvalue = [0, 2]"] ;
5 -> 13 ;
14 [label="gini = 0.0\nsamples = 4\nvalue = [0, 4]"] ;
2 -> 14 ;
15 [label="cell_shape <= 1.5\ngini = 0.245\nsamples = 14\nvalue = [2, 12]"] ;
1 -> 15 ;
16 [label="gini = 0.0\nsamples = 1\nvalue = [1, 0]"] ;
15 -> 16 ;
17 [label="mitoses <= 2.5\ngini = 0.142\nsamples = 13\nvalue = [1, 12]"] ;
15 -> 17 ;
18 [label="gini = 0.0\nsamples = 10\nvalue = [0, 10]"] ;
17 -> 18 ;
19 [label="gini = 0.444\nsamples = 3\nvalue = [1, 2]"] ;
17 -> 19 ;
20 [label="cell_size <= 4.5\ngini = 0.098\nsamples = 155\nvalue = [8, 147]"] ;
0 -> 20 [labeldistance=2.5, labelangle=-45, headlabel="False"] ;
21 [label="bare_nuclei <= 7.5\ngini = 0.403\nsamples = 25\nvalue = [7, 18]"] ;
20 -> 21 ;
22 [label="adhesion <= 6.0\ngini = 0.497\nsamples = 13\nvalue = [7, 6]"] ;
21 -> 22 ;
23 [label="cell_shape <= 6.5\ngini = 0.42\nsamples = 10\nvalue = [7, 3]"] ;
22 -> 23 ;
24 [label="gini = 0.219\nsamples = 8\nvalue = [7, 1]"] ;
23 -> 24 ;
25 [label="gini = 0.0\nsamples = 2\nvalue = [0, 2]"] ;
23 -> 25 ;
26 [label="gini = 0.0\nsamples = 3\nvalue = [0, 3]"] ;
22 -> 26 ;
27 [label="gini = 0.0\nsamples = 12\nvalue = [0, 12]"] ;
21 -> 27 ;
28 [label="normal_nucleoli <= 2.5\ngini = 0.015\nsamples = 130\nvalue = [1, 129]"] ;
20 -> 28 ;
29 [label="normal_nucleoli <= 1.5\ngini = 0.083\nsamples = 23\nvalue = [1, 22]"] ;
28 -> 29 ;
30 [label="gini = 0.0\nsamples = 17\nvalue = [0, 17]"] ;
29 -> 30 ;
31 [label="gini = 0.278\nsamples = 6\nvalue = [1, 5]"] ;
29 -> 31 ;
32 [label="gini = 0.0\nsamples = 107\nvalue = [0, 107]"] ;
28 -> 32 ;
}